Language model created by QuickLM on Mon Nov 14 18:13:24 EST 2011
Copyright (c) 1996-2010 Carnegie Mellon University and Alexander I. Rudnicky

The model is in standard ARPA format, designed by Doug Paul while he was at MITRE.

The code that was used to produce this language model is available in Open Source.
Please visit http://www.speech.cs.cmu.edu/tools/ for more information

The (fixed) discount mass is 0.5. The backoffs are computed using the ratio method.
This model based on a corpus of 16 sentences and 38 words

\data\
ngram 1=38
ngram 2=57
ngram 3=50

\1-grams:
-1.0463 </s> -0.3010
-1.0463 <s> -0.2574
-2.2504 AROUND -0.2601
-2.2504 AT -0.2936
-2.2504 BOLL -0.2601
-2.2504 CHASING -0.2986
-2.2504 CLEAN -0.2961
-2.2504 DANCE -0.2601
-2.2504 DESK -0.2601
-1.3473 E -0.2785
-2.2504 FACE -0.2601
-2.2504 GIVE -0.2936
-2.2504 HOW -0.2986
-2.2504 IS -0.2961
-1.9494 LIGHT -0.2601
-2.2504 LOOK -0.2986
-1.7733 ME -0.2547
-2.2504 MOVIE -0.2601
-2.2504 MUSIC -0.2601
-1.9494 MY -0.2961
-2.2504 OFF -0.2961
-2.2504 PHOTO -0.2601
-2.2504 PLAY -0.2986
-2.2504 SAY -0.2986
-2.2504 SHARE -0.2936
-1.9494 SOME -0.2936
-2.2504 SOMETHING -0.2601
-2.2504 STOP -0.2601
-2.2504 TAKE -0.2986
-1.9494 THE -0.2961
-2.2504 TRACK -0.2961
-1.9494 TURN -0.2961
-1.3473 WALL -0.2811
-2.2504 WHAT'S -0.2961
-2.2504 WHETHER -0.2601
-2.2504 WIND -0.2601
-2.2504 WITH -0.2986
-2.2504 YOURSELF -0.2601

\2-grams:
-1.5051 <s> CHASING 0.0000
-1.5051 <s> CLEAN 0.0000
-1.5051 <s> LOOK 0.0000
-1.5051 <s> PLAY 0.0000
-1.5051 <s> SAY 0.0000
-1.5051 <s> STOP 0.0000
-1.5051 <s> TRACK 0.0000
-1.5051 <s> TURN -0.1761
-0.6021 <s> WALL 0.0000
-0.3010 AROUND </s> -0.3010
-0.3010 AT ME -0.2218
-0.3010 BOLL </s> -0.3010
-0.3010 CHASING BOLL 0.0000
-0.3010 CLEAN MY -0.1761
-0.3010 DANCE </s> -0.3010
-0.3010 DESK </s> -0.3010
-1.2041 E DANCE 0.0000
-1.2041 E GIVE 0.0000
-1.2041 E HOW 0.0000
-1.2041 E MUSIC 0.0000
-1.2041 E SHARE 0.0000
-1.2041 E TAKE 0.0000
-1.2041 E TURN -0.1761
-1.2041 E WHAT'S 0.0000
-0.3010 FACE </s> -0.3010
-0.3010 GIVE ME -0.1249
-0.3010 HOW IS 0.0000
-0.3010 IS THE -0.1761
-0.3010 LIGHT </s> -0.3010
-0.3010 LOOK AT 0.0000
-0.7782 ME </s> -0.3010
-0.4771 ME SOME 0.0000
-0.3010 MOVIE </s> -0.3010
-0.3010 MUSIC </s> -0.3010
-0.6021 MY DESK 0.0000
-0.6021 MY FACE 0.0000
-0.3010 OFF LIGHT 0.0000
-0.3010 PHOTO </s> -0.3010
-0.3010 PLAY WITH 0.0000
-0.3010 SAY SOMETHING 0.0000
-0.3010 SHARE ME -0.1249
-0.6021 SOME LIGHT 0.0000
-0.6021 SOME WIND 0.0000
-0.3010 SOMETHING </s> -0.3010
-0.3010 STOP </s> -0.3010
-0.3010 TAKE PHOTO 0.0000
-0.6021 THE MOVIE 0.0000
-0.6021 THE WHETHER 0.0000
-0.3010 TRACK MY -0.1761
-0.6021 TURN AROUND 0.0000
-0.6021 TURN OFF 0.0000
-0.3010 WALL E 0.0000
-0.3010 WHAT'S THE -0.1761
-0.3010 WHETHER </s> -0.3010
-0.3010 WIND </s> -0.3010
-0.3010 WITH YOURSELF 0.0000
-0.3010 YOURSELF </s> -0.3010

\3-grams:
-0.3010 <s> CHASING BOLL
-0.3010 <s> CLEAN MY
-0.3010 <s> LOOK AT
-0.3010 <s> PLAY WITH
-0.3010 <s> SAY SOMETHING
-0.3010 <s> STOP </s>
-0.3010 <s> TRACK MY
-0.3010 <s> TURN AROUND
-0.3010 <s> WALL E
-0.3010 AT ME </s>
-0.3010 CHASING BOLL </s>
-0.3010 CLEAN MY DESK
-0.3010 E DANCE </s>
-0.3010 E GIVE ME
-0.3010 E HOW IS
-0.3010 E MUSIC </s>
-0.3010 E SHARE ME
-0.3010 E TAKE PHOTO
-0.3010 E TURN OFF
-0.3010 E WHAT'S THE
-0.3010 GIVE ME SOME
-0.3010 HOW IS THE
-0.3010 IS THE WHETHER
-0.3010 LOOK AT ME
-0.6021 ME SOME LIGHT
-0.6021 ME SOME WIND
-0.3010 MY DESK </s>
-0.3010 MY FACE </s>
-0.3010 OFF LIGHT </s>
-0.3010 PLAY WITH YOURSELF
-0.3010 SAY SOMETHING </s>
-0.3010 SHARE ME SOME
-0.3010 SOME LIGHT </s>
-0.3010 SOME WIND </s>
-0.3010 TAKE PHOTO </s>
-0.3010 THE MOVIE </s>
-0.3010 THE WHETHER </s>
-0.3010 TRACK MY FACE
-0.3010 TURN AROUND </s>
-0.3010 TURN OFF LIGHT
-1.2041 WALL E DANCE
-1.2041 WALL E GIVE
-1.2041 WALL E HOW
-1.2041 WALL E MUSIC
-1.2041 WALL E SHARE
-1.2041 WALL E TAKE
-1.2041 WALL E TURN
-1.2041 WALL E WHAT'S
-0.3010 WHAT'S THE MOVIE
-0.3010 WITH YOURSELF </s>

\end\
