Language model created by QuickLM on Sun Nov 20 02:44:23 EST 2011
Copyright (c) 1996-2010 Carnegie Mellon University and Alexander I. Rudnicky

The model is in standard ARPA format, designed by Doug Paul while he was at MITRE.

The code that was used to produce this language model is available in Open Source.
Please visit http://www.speech.cs.cmu.edu/tools/ for more information

The (fixed) discount mass is 0.5. The backoffs are computed using the ratio method.
This model based on a corpus of 21 sentences and 47 words

\data\
ngram 1=47
ngram 2=71
ngram 3=61

\1-grams:
-1.0241 </s> -0.3010
-1.0241 <s> -0.2557
-2.3464 A -0.2991
-2.3464 AROUND -0.2579
-2.3464 AT -0.2951
-2.3464 BACKWARD -0.2579
-2.3464 BOLL -0.2579
-2.3464 CHASING -0.2991
-2.3464 CLEAN -0.2971
-2.3464 DANCE -0.2579
-2.3464 DESK -0.2579
-1.3921 E -0.2810
-2.3464 FACE -0.2579
-2.3464 GIVE -0.2951
-2.3464 GO -0.2579
-2.3464 HANDS -0.2579
-2.3464 HELLO -0.2579
-2.3464 HOW -0.2991
-2.3464 IS -0.2971
-2.0453 LIGHT -0.2579
-2.3464 LOOK -0.2991
-1.8692 ME -0.2535
-2.3464 MOVIE -0.2579
-2.3464 MUSIC -0.2579
-2.0453 MY -0.2971
-2.3464 OFF -0.2971
-2.3464 PHOTO -0.2579
-2.3464 PLAY -0.2991
-2.3464 RAISE -0.2991
-2.0453 SAY -0.2971
-2.3464 SHARE -0.2951
-2.3464 SING -0.2991
-2.0453 SOME -0.2951
-2.3464 SOMETHING -0.2579
-2.3464 SONG -0.2579
-2.3464 STOP -0.2579
-2.3464 TAKE -0.2991
-2.0453 THE -0.2971
-2.3464 TRACK -0.2971
-2.0453 TURN -0.2971
-1.3921 WALL -0.2831
-2.3464 WHAT'S -0.2971
-2.3464 WHETHER -0.2579
-2.3464 WIND -0.2579
-2.3464 WITH -0.2991
-2.3464 YOUR -0.2991
-2.3464 YOURSELF -0.2579

\2-grams:
-1.6232 <s> BACKWARD 0.0000
-1.6232 <s> CHASING 0.0000
-1.6232 <s> CLEAN 0.0000
-1.6232 <s> GO 0.0000
-1.6232 <s> LOOK 0.0000
-1.6232 <s> PLAY 0.0000
-1.6232 <s> RAISE 0.0000
-1.3222 <s> SAY 0.0000
-1.6232 <s> STOP 0.0000
-1.6232 <s> TRACK 0.0000
-1.6232 <s> TURN -0.1761
-0.6690 <s> WALL 0.0000
-0.3010 A SONG 0.0000
-0.3010 AROUND </s> -0.3010
-0.3010 AT ME -0.2218
-0.3010 BACKWARD </s> -0.3010
-0.3010 BOLL </s> -0.3010
-0.3010 CHASING BOLL 0.0000
-0.3010 CLEAN MY -0.1761
-0.3010 DANCE </s> -0.3010
-0.3010 DESK </s> -0.3010
-1.2553 E DANCE 0.0000
-1.2553 E GIVE 0.0000
-1.2553 E HOW 0.0000
-1.2553 E MUSIC 0.0000
-1.2553 E SHARE 0.0000
-1.2553 E SING 0.0000
-1.2553 E TAKE 0.0000
-1.2553 E TURN -0.1761
-1.2553 E WHAT'S 0.0000
-0.3010 FACE </s> -0.3010
-0.3010 GIVE ME -0.1249
-0.3010 GO </s> -0.3010
-0.3010 HANDS </s> -0.3010
-0.3010 HELLO </s> -0.3010
-0.3010 HOW IS 0.0000
-0.3010 IS THE -0.1761
-0.3010 LIGHT </s> -0.3010
-0.3010 LOOK AT 0.0000
-0.7782 ME </s> -0.3010
-0.4771 ME SOME 0.0000
-0.3010 MOVIE </s> -0.3010
-0.3010 MUSIC </s> -0.3010
-0.6021 MY DESK 0.0000
-0.6021 MY FACE 0.0000
-0.3010 OFF LIGHT 0.0000
-0.3010 PHOTO </s> -0.3010
-0.3010 PLAY WITH 0.0000
-0.3010 RAISE YOUR 0.0000
-0.6021 SAY HELLO 0.0000
-0.6021 SAY SOMETHING 0.0000
-0.3010 SHARE ME -0.1249
-0.3010 SING A 0.0000
-0.6021 SOME LIGHT 0.0000
-0.6021 SOME WIND 0.0000
-0.3010 SOMETHING </s> -0.3010
-0.3010 SONG </s> -0.3010
-0.3010 STOP </s> -0.3010
-0.3010 TAKE PHOTO 0.0000
-0.6021 THE MOVIE 0.0000
-0.6021 THE WHETHER 0.0000
-0.3010 TRACK MY -0.1761
-0.6021 TURN AROUND 0.0000
-0.6021 TURN OFF 0.0000
-0.3010 WALL E 0.0000
-0.3010 WHAT'S THE -0.1761
-0.3010 WHETHER </s> -0.3010
-0.3010 WIND </s> -0.3010
-0.3010 WITH YOURSELF 0.0000
-0.3010 YOUR HANDS 0.0000
-0.3010 YOURSELF </s> -0.3010

\3-grams:
-0.3010 <s> BACKWARD </s>
-0.3010 <s> CHASING BOLL
-0.3010 <s> CLEAN MY
-0.3010 <s> GO </s>
-0.3010 <s> LOOK AT
-0.3010 <s> PLAY WITH
-0.3010 <s> RAISE YOUR
-0.6021 <s> SAY HELLO
-0.6021 <s> SAY SOMETHING
-0.3010 <s> STOP </s>
-0.3010 <s> TRACK MY
-0.3010 <s> TURN AROUND
-0.3010 <s> WALL E
-0.3010 A SONG </s>
-0.3010 AT ME </s>
-0.3010 CHASING BOLL </s>
-0.3010 CLEAN MY DESK
-0.3010 E DANCE </s>
-0.3010 E GIVE ME
-0.3010 E HOW IS
-0.3010 E MUSIC </s>
-0.3010 E SHARE ME
-0.3010 E SING A
-0.3010 E TAKE PHOTO
-0.3010 E TURN OFF
-0.3010 E WHAT'S THE
-0.3010 GIVE ME SOME
-0.3010 HOW IS THE
-0.3010 IS THE WHETHER
-0.3010 LOOK AT ME
-0.6021 ME SOME LIGHT
-0.6021 ME SOME WIND
-0.3010 MY DESK </s>
-0.3010 MY FACE </s>
-0.3010 OFF LIGHT </s>
-0.3010 PLAY WITH YOURSELF
-0.3010 RAISE YOUR HANDS
-0.3010 SAY HELLO </s>
-0.3010 SAY SOMETHING </s>
-0.3010 SHARE ME SOME
-0.3010 SING A SONG
-0.3010 SOME LIGHT </s>
-0.3010 SOME WIND </s>
-0.3010 TAKE PHOTO </s>
-0.3010 THE MOVIE </s>
-0.3010 THE WHETHER </s>
-0.3010 TRACK MY FACE
-0.3010 TURN AROUND </s>
-0.3010 TURN OFF LIGHT
-1.2553 WALL E DANCE
-1.2553 WALL E GIVE
-1.2553 WALL E HOW
-1.2553 WALL E MUSIC
-1.2553 WALL E SHARE
-1.2553 WALL E SING
-1.2553 WALL E TAKE
-1.2553 WALL E TURN
-1.2553 WALL E WHAT'S
-0.3010 WHAT'S THE MOVIE
-0.3010 WITH YOURSELF </s>
-0.3010 YOUR HANDS </s>

\end\
