Language model created by QuickLM on Fri Jan 13 19:16:47 EST 2012
Copyright (c) 1996-2010 Carnegie Mellon University and Alexander I. Rudnicky

The model is in standard ARPA format, designed by Doug Paul while he was at MITRE.

The code that was used to produce this language model is available in Open Source.
Please visit http://www.speech.cs.cmu.edu/tools/ for more information

The (fixed) discount mass is 0.5. The backoffs are computed using the ratio method.
This model based on a corpus of 21 sentences and 46 words

\data\
ngram 1=46
ngram 2=70
ngram 3=62

\1-grams:
-1.0357 </s> -0.3010
-1.0357 <s> -0.2570
-2.3579 A -0.2991
-2.3579 AROUND -0.2591
-2.3579 AT -0.2953
-2.3579 BACKWARD -0.2591
-2.3579 BOLL -0.2591
-2.3579 CHASING -0.2991
-2.3579 CLEAN -0.2972
-2.3579 DANCE -0.2591
-2.3579 DESK -0.2591
-1.3165 E -0.2775
-2.3579 FACE -0.2591
-2.3579 GIVE -0.2953
-2.3579 GO -0.2591
-2.3579 HANDS -0.2591
-2.3579 HELLO -0.2591
-2.3579 HOW'S -0.2972
-2.0569 LIGHT -0.2591
-2.3579 LOOK -0.2991
-1.8808 ME -0.2548
-2.3579 MOVIE -0.2591
-2.3579 MUSIC -0.2591
-2.0569 MY -0.2972
-2.3579 OFF -0.2972
-2.3579 PHOTO -0.2591
-2.3579 PLAY -0.2991
-2.3579 RAISE -0.2991
-2.0569 SAY -0.2972
-2.3579 SHARE -0.2953
-2.3579 SING -0.2991
-2.0569 SOME -0.2953
-2.3579 SOMETHING -0.2591
-2.3579 SONG -0.2591
-2.3579 STOP -0.2591
-2.3579 TAKE -0.2991
-2.0569 THE -0.2972
-2.3579 TRACK -0.2972
-2.0569 TURN -0.2972
-1.3165 WALL -0.2796
-2.3579 WHAT'S -0.2972
-2.3579 WHETHER -0.2591
-2.3579 WIND -0.2591
-2.3579 WITH -0.2991
-2.3579 YOUR -0.2991
-2.3579 YOURSELF -0.2591

\2-grams:
-1.6232 <s> BACKWARD 0.0000
-1.6232 <s> CHASING 0.0000
-1.6232 <s> CLEAN 0.0000
-1.6232 <s> LOOK 0.0000
-1.6232 <s> PLAY 0.0000
-1.6232 <s> RAISE 0.0000
-1.3222 <s> SAY 0.0000
-1.6232 <s> TRACK 0.0000
-1.6232 <s> TURN -0.1761
-0.5819 <s> WALL 0.0000
-0.3010 A SONG 0.0000
-0.3010 AROUND </s> -0.3010
-0.3010 AT ME -0.2218
-0.3010 BACKWARD </s> -0.3010
-0.3010 BOLL </s> -0.3010
-0.3010 CHASING BOLL 0.0000
-0.3010 CLEAN MY -0.1761
-0.3010 DANCE </s> -0.3010
-0.3010 DESK </s> -0.3010
-1.3424 E DANCE 0.0000
-1.3424 E GIVE 0.0000
-1.3424 E GO 0.0000
-1.3424 E HOW'S 0.0000
-1.3424 E MUSIC 0.0000
-1.3424 E SHARE 0.0000
-1.3424 E SING 0.0000
-1.3424 E STOP 0.0000
-1.3424 E TAKE 0.0000
-1.3424 E TURN -0.1761
-1.3424 E WHAT'S 0.0000
-0.3010 FACE </s> -0.3010
-0.3010 GIVE ME -0.1249
-0.3010 GO </s> -0.3010
-0.3010 HANDS </s> -0.3010
-0.3010 HELLO </s> -0.3010
-0.3010 HOW'S THE -0.1761
-0.3010 LIGHT </s> -0.3010
-0.3010 LOOK AT 0.0000
-0.7782 ME </s> -0.3010
-0.4771 ME SOME 0.0000
-0.3010 MOVIE </s> -0.3010
-0.3010 MUSIC </s> -0.3010
-0.6021 MY DESK 0.0000
-0.6021 MY FACE 0.0000
-0.3010 OFF LIGHT 0.0000
-0.3010 PHOTO </s> -0.3010
-0.3010 PLAY WITH 0.0000
-0.3010 RAISE YOUR 0.0000
-0.6021 SAY HELLO 0.0000
-0.6021 SAY SOMETHING 0.0000
-0.3010 SHARE ME -0.1249
-0.3010 SING A 0.0000
-0.6021 SOME LIGHT 0.0000
-0.6021 SOME WIND 0.0000
-0.3010 SOMETHING </s> -0.3010
-0.3010 SONG </s> -0.3010
-0.3010 STOP </s> -0.3010
-0.3010 TAKE PHOTO 0.0000
-0.6021 THE MOVIE 0.0000
-0.6021 THE WHETHER 0.0000
-0.3010 TRACK MY -0.1761
-0.6021 TURN AROUND 0.0000
-0.6021 TURN OFF 0.0000
-0.3010 WALL E 0.0000
-0.3010 WHAT'S THE -0.1761
-0.3010 WHETHER </s> -0.3010
-0.3010 WIND </s> -0.3010
-0.3010 WITH YOURSELF 0.0000
-0.3010 YOUR HANDS 0.0000
-0.3010 YOURSELF </s> -0.3010

\3-grams:
-0.3010 <s> BACKWARD </s>
-0.3010 <s> CHASING BOLL
-0.3010 <s> CLEAN MY
-0.3010 <s> LOOK AT
-0.3010 <s> PLAY WITH
-0.3010 <s> RAISE YOUR
-0.6021 <s> SAY HELLO
-0.6021 <s> SAY SOMETHING
-0.3010 <s> TRACK MY
-0.3010 <s> TURN AROUND
-0.3010 <s> WALL E
-0.3010 A SONG </s>
-0.3010 AT ME </s>
-0.3010 CHASING BOLL </s>
-0.3010 CLEAN MY DESK
-0.3010 E DANCE </s>
-0.3010 E GIVE ME
-0.3010 E GO </s>
-0.3010 E HOW'S THE
-0.3010 E MUSIC </s>
-0.3010 E SHARE ME
-0.3010 E SING A
-0.3010 E STOP </s>
-0.3010 E TAKE PHOTO
-0.3010 E TURN OFF
-0.3010 E WHAT'S THE
-0.3010 GIVE ME SOME
-0.3010 HOW'S THE WHETHER
-0.3010 LOOK AT ME
-0.6021 ME SOME LIGHT
-0.6021 ME SOME WIND
-0.3010 MY DESK </s>
-0.3010 MY FACE </s>
-0.3010 OFF LIGHT </s>
-0.3010 PLAY WITH YOURSELF
-0.3010 RAISE YOUR HANDS
-0.3010 SAY HELLO </s>
-0.3010 SAY SOMETHING </s>
-0.3010 SHARE ME SOME
-0.3010 SING A SONG
-0.3010 SOME LIGHT </s>
-0.3010 SOME WIND </s>
-0.3010 TAKE PHOTO </s>
-0.3010 THE MOVIE </s>
-0.3010 THE WHETHER </s>
-0.3010 TRACK MY FACE
-0.3010 TURN AROUND </s>
-0.3010 TURN OFF LIGHT
-1.3424 WALL E DANCE
-1.3424 WALL E GIVE
-1.3424 WALL E GO
-1.3424 WALL E HOW'S
-1.3424 WALL E MUSIC
-1.3424 WALL E SHARE
-1.3424 WALL E SING
-1.3424 WALL E STOP
-1.3424 WALL E TAKE
-1.3424 WALL E TURN
-1.3424 WALL E WHAT'S
-0.3010 WHAT'S THE MOVIE
-0.3010 WITH YOURSELF </s>
-0.3010 YOUR HANDS </s>

\end\
